<?xml version="1.0"?>
<opencv_storage>
<cascade>
  <stageType>BOOST</stageType>
  <featureType>HAAR</featureType>
  <height>20</height>
  <width>20</width>
  <stageParams>
    <boostType>GAB</boostType>
    <minHitRate>9.9500000476837158e-01</minHitRate>
    <maxFalseAlarm>5.0000000000000000e-01</maxFalseAlarm>
    <weightTrimRate>9.4999999999999996e-01</weightTrimRate>
    <maxDepth>1</maxDepth>
    <maxWeakCount>100</maxWeakCount></stageParams>
  <featureParams>
    <maxCatCount>0</maxCatCount>
    <featSize>1</featSize>
    <mode>BASIC</mode></featureParams>
  <stageNum>19</stageNum>
  <stages>
    <!-- stage 0 -->
    <_>
      <maxWeakCount>4</maxWeakCount>
      <stageThreshold>-5.4982805252075195e-01</stageThreshold>
      <weakClassifiers>
        <_>
          <internalNodes>
            0 -1 73 2.1235405001789331e-03</internalNodes>
          <leafValues>
            -6.2577450275421143e-01 6.5836298465728760e-01</leafValues></_>
        <_>
          <internalNodes>
            0 -1 43 -1.2359686195850372e-02</internalNodes>
          <leafValues>
            -9.7408407926559448e-01 3.7702265381813049e-01</leafValues></_>
        <_>
          <internalNodes>
            0 -1 91 2.1437418181449175e-03</internalNodes>
          <leafValues>
            -6.2251466512680054e-01 5.1031357049942017e-01</leafValues></_>
        <_>
          <internalNodes>
            0 -1 13 2.7210609987378120e-03</internalNodes>
          <leafValues>
            -8.1138980388641357e-01 4.3673762679100037e-01</leafValues></_></weakClassifiers></_>
    <!-- stage 1 -->
    <_>
      <maxWeakCount>4</maxWeakCount>
      <stageThreshold>-8.0795729160308838e-01</stageThreshold>
      <weakClassifiers>
        <_>
          <internalNodes>
            0 -1 73 2.9354295693337917e-03</internalNodes>
          <leafValues>
            -5.8441555500030518e-01 8.1267219781875610e-01</leafValues></_>
        <_>
          <internalNodes>
            0 -1 90 2.6320321485400200e-03</internalNodes>
          <leafValues>
            -4.4510823488235474e-01 8.3312344551086426e-01</leafValues></_>
        <_>
          <internalNodes>
            0 -1 56 -1.9712003413587809e-03</internalNodes>
          <leafValues>
            7.1776127815246582e-01 -5.4318910837173462e-01</leafValues></_>
        <_>
          <internalNodes>
            0 -1 47 -1.5154371503740549e-03</internalNodes>
          <leafValues>
            7.6475566625595093e-01 -4.2163184285163879e-01</leafValues></_></weakClassifiers></_>
    <!-- stage 2 -->
    <_>
      <maxWeakCount>4</maxWeakCount>
      <stageThreshold>-4.7015604376792908e-01</stageThreshold>
      <weakClassifiers>
        <_>
          <internalNodes>
            0 -1 62 3.8176565431058407e-03</internalNodes>
          <leafValues>
            -3.9587241411209106e-01 8.0821919441223145e-01</leafValues></_>
        <_>
          <internalNodes>
            0 -1 77 3.0220334883779287e-03</internalNodes>
          <leafValues>
            4.3988746404647827e-01 -8.6143231391906738e-01</leafValues></_>
        <_>
          <internalNodes>
            0 -1 83 1.6249257605522871e-03</internalNodes>
          <leafValues>
            -5.7077831029891968e-01 4.6334409713745117e-01</leafValues></_>
        <_>
          <internalNodes>
            0 -1 80 -3.3158520236611366e-03</internalNodes>
          <leafValues>
            -9.2414289712905884e-01 3.2380455732345581e-01</leafValues></_></weakClassifiers></_>
    <!-- stage 3 -->
    <_>
      <maxWeakCount>6</maxWeakCount>
      <stageThreshold>-9.5244222879409790e-01</stageThreshold>
      <weakClassifiers>
        <_>
          <internalNodes>
            0 -1 123 -9.5965326181612909e-05</internalNodes>
          <leafValues>
            3.7109044194221497e-01 -8.3297646045684814e-01</leafValues></_>
        <_>
          <internalNodes>
            0 -1 12 -1.5204957686364651e-02</internalNodes>
          <leafValues>
            -9.3847370147705078e-01 2.3949272930622101e-01</leafValues></_>
        <_>
          <internalNodes>
            0 -1 21 1.5122016891837120e-02</internalNodes>
          <leafValues>
            3.0827721953392029e-01 -9.7674077749252319e-01</leafValues></_>
        <_>
          <internalNodes>
            0 -1 94 -1.2508695945143700e-03</internalNodes>
          <leafValues>
            4.6986889839172363e-01 -5.8317935466766357e-01</leafValues></_>
        <_>
          <internalNodes>
            0 -1 87 -3.1346082687377930e-03</internalNodes>
          <leafValues>
            7.4067884683609009e-01 -3.7512791156768799e-01</leafValues></_>
        <_>
          <internalNodes>
            0 -1 60 7.5112320482730865e-03</internalNodes>
          <leafValues>
            2.9107150435447693e-01 -9.7734701633453369e-01</leafValues></_></weakClassifiers></_>
    <!-- stage 4 -->
    <_>
      <maxWeakCount>5</maxWeakCount>
      <stageThreshold>-9.7989344596862793e-01</stageThreshold>
      <weakClassifiers>
        <_>
          <internalNodes>
            0 -1 59 -1.0585414245724678e-02</internalNodes>
          <leafValues>
            -7.7205884456634521e-01 4.2495480179786682e-01</leafValues></_>
        <_>
          <internalNodes>
            0 -1 35 -7.3495721444487572e-03</internalNodes>
          <leafValues>
            -9.5552843809127808e-01 2.7586334943771362e-01</leafValues></_>
        <_>
          <internalNodes>
            0 -1 62 4.6300035901367664e-03</internalNodes>
          <leafValues>
            -4.1260060667991638e-01 7.6110213994979858e-01</leafValues></_>
        <_>
          <internalNodes>
            0 -1 2 -1.5919873258098960e-03</internalNodes>
          <leafValues>
            5.5508339405059814e-01 -4.4242194294929504e-01</leafValues></_>
        <_>
          <internalNodes>
            0 -1 93 -1.8593857530504465e-03</internalNodes>
          <leafValues>
            3.7132456898689270e-01 -6.6580426692962646e-01</leafValues></_></weakClassifiers></_>
    <!-- stage 5 -->
    <_>
      <maxWeakCount>6</maxWeakCount>
      <stageThreshold>-8.6290287971496582e-01</stageThreshold>
      <weakClassifiers>
        <_>
          <internalNodes>
            0 -1 54 -5.0542620010674000e-04</internalNodes>
          <leafValues>
            4.4632768630981445e-01 -7.2108840942382813e-01</leafValues></_>
        <_>
          <internalNodes>
            0 -1 11 1.0444194776937366e-03</internalNodes>
          <leafValues>
            -7.0314246416091919e-01 3.3883348107337952e-01</leafValues></_>
        <_>
          <internalNodes>
            0 -1 96 1.7953801434487104e-03</internalNodes>
          <leafValues>
            -4.0328833460807800e-01 5.3242880105972290e-01</leafValues></_>
        <_>
          <internalNodes>
            0 -1 19 1.4951120130717754e-02</internalNodes>
          <leafValues>
            3.3213394880294800e-01 -8.3709484338760376e-01</leafValues></_>
        <_>
          <internalNodes>
            0 -1 86 -5.2109098760411143e-04</internalNodes>
          <leafValues>
            3.7104338407516479e-01 -5.5400973558425903e-01</leafValues></_>
        <_>
          <internalNodes>
            0 -1 71 -1.2208350934088230e-02</internalNodes>
          <leafValues>
            -8.6698603630065918e-01 2.6143902540206909e-01</leafValues></_></weakClassifiers></_>
    <!-- stage 6 -->
    <_>
      <maxWeakCount>6</maxWeakCount>
      <stageThreshold>-1.0869336128234863e+00</stageThreshold>
      <weakClassifiers>
        <_>
          <internalNodes>
            0 -1 16 -2.0584674552083015e-02</internalNodes>
          <leafValues>
            -9.2307692766189575e-01 2.7591463923454285e-01</leafValues></_>
        <_>
          <internalNodes>
            0 -1 76 4.0604099631309509e-03</internalNodes>
          <leafValues>
            -5.2018684148788452e-01 3.5637903213500977e-01</leafValues></_>
        <_>
          <internalNodes>
            0 -1 61 -1.1345949023962021e-02</internalNodes>
          <leafValues>
            -9.3210530281066895e-01 2.7806860208511353e-01</leafValues></_>
        <_>
          <internalNodes>
            0 -1 32 2.4021103978157043e-02</internalNodes>
          <leafValues>
            1.8296843767166138e-01 -8.8045257329940796e-01</leafValues></_>
        <_>
          <internalNodes>
            0 -1 9 -2.6013460010290146e-03</internalNodes>
          <leafValues>
            4.8337659239768982e-01 -4.4962212443351746e-01</leafValues></_>
        <_>
          <internalNodes>
            0 -1 22 1.7843998502939939e-03</internalNodes>
          <leafValues>
            2.0934468507766724e-01 -7.6874971389770508e-01</leafValues></_></weakClassifiers></_>
    <!-- stage 7 -->
    <_>
      <maxWeakCount>7</maxWeakCount>
      <stageThreshold>-1.0762270689010620e+00</stageThreshold>
      <weakClassifiers>
        <_>
          <internalNodes>
            0 -1 84 -8.2375889178365469e-04</internalNodes>
          <leafValues>
            5.5757576227188110e-01 -3.2121211290359497e-01</leafValues></_>
        <_>
          <internalNodes>
            0 -1 92 -1.4011157327331603e-04</internalNodes>
          <leafValues>
            2.3158353567123413e-01 -8.4990167617797852e-01</leafValues></_>
        <_>
          <internalNodes>
            0 -1 3 -2.2772268857806921e-03</internalNodes>
          <leafValues>
            6.5969747304916382e-01 -3.0757772922515869e-01</leafValues></_>
        <_>
          <internalNodes>
            0 -1 5 2.5929980911314487e-03</internalNodes>
          <leafValues>
            -3.3610382676124573e-01 5.4142773151397705e-01</leafValues></_>
        <_>
          <internalNodes>
            0 -1 101 -6.8566598929464817e-03</internalNodes>
          <leafValues>
            -8.2428991794586182e-01 2.1627351641654968e-01</leafValues></_>
        <_>
          <internalNodes>
            0 -1 70 1.3187183067202568e-03</internalNodes>
          <leafValues>
            -6.6201448440551758e-01 2.4035069346427917e-01</leafValues></_>
        <_>
          <internalNodes>
            0 -1 38 1.7230026423931122e-02</internalNodes>
          <leafValues>
            1.0282405465841293e-01 -9.4578343629837036e-01</leafValues></_></weakClassifiers></_>
    <!-- stage 8 -->
    <_>
      <maxWeakCount>7</maxWeakCount>
      <stageThreshold>-7.8055077791213989e-01</stageThreshold>
      <weakClassifiers>
        <_>
          <internalNodes>
            0 -1 13 1.9767573103308678e-03</internalNodes>
          <leafValues>
            -8.3333331346511841e-01 2.9225909709930420e-01</leafValues></_>
        <_>
          <internalNodes>
            0 -1 55 1.7555193335283548e-04</internalNodes>
          <leafValues>
            -4.8319625854492188e-01 4.2493575811386108e-01</leafValues></_>
        <_>
          <internalNodes>
            0 -1 31 4.6787433326244354e-02</internalNodes>
          <leafValues>
            -2.3284275829792023e-01 7.5367075204849243e-01</leafValues></_>
        <_>
          <internalNodes>
            0 -1 74 3.9785369299352169e-03</internalNodes>
          <leafValues>
            3.0818995833396912e-01 -6.7578494548797607e-01</leafValues></_>
        <_>
          <internalNodes>
            0 -1 105 4.6958555467426777e-03</internalNodes>
          <leafValues>
            -3.5277625918388367e-01 6.4298832416534424e-01</leafValues></_>
        <_>
          <internalNodes>
            0 -1 24 1.6491323709487915e-02</internalNodes>
          <leafValues>
            2.8134754300117493e-01 -9.3327546119689941e-01</leafValues></_>
        <_>
          <internalNodes>
            0 -1 118 2.2822802420705557e-03</internalNodes>
          <leafValues>
            -4.5445320010185242e-01 5.3004401922225952e-01</leafValues></_></weakClassifiers></_>
    <!-- stage 9 -->
    <_>
      <maxWeakCount>9</maxWeakCount>
      <stageThreshold>-7.7614814043045044e-01</stageThreshold>
      <weakClassifiers>
        <_>
          <internalNodes>
            0 -1 44 1.4427164569497108e-04</internalNodes>
          <leafValues>
            -4.5628416538238525e-01 4.1830065846443176e-01</leafValues></_>
        <_>
          <internalNodes>
            0 -1 131 8.2326959818601608e-03</internalNodes>
          <leafValues>
            -1.8839408457279205e-01 9.0017646551132202e-01</leafValues></_>
        <_>
          <internalNodes>
            0 -1 126 -2.3799587506800890e-03</internalNodes>
          <leafValues>
            3.1901711225509644e-01 -6.4296811819076538e-01</leafValues></_>
        <_>
          <internalNodes>
            0 -1 121 -1.3516625389456749e-02</internalNodes>
          <leafValues>
            -8.2001382112503052e-01 2.6653906702995300e-01</leafValues></_>
        <_>
          <internalNodes>
            0 -1 34 -9.3810902908444405e-03</internalNodes>
          <leafValues>
            -8.6562359333038330e-01 1.7365458607673645e-01</leafValues></_>
        <_>
          <internalNodes>
            0 -1 39 -1.5230468707159162e-03</internalNodes>
          <leafValues>
            -7.2666966915130615e-01 2.0187276601791382e-01</leafValues></_>
        <_>
          <internalNodes>
            0 -1 78 -3.1323691364377737e-03</internalNodes>
          <leafValues>
            5.2224737405776978e-01 -3.5930687189102173e-01</leafValues></_>
        <_>
          <internalNodes>
            0 -1 48 -3.1014272943139076e-02</internalNodes>
          <leafValues>
            6.8065750598907471e-01 -2.5619134306907654e-01</leafValues></_>
        <_>
          <internalNodes>
            0 -1 110 6.2122689560055733e-03</internalNodes>
          <leafValues>
            -2.4225497245788574e-01 7.4532836675643921e-01</leafValues></_></weakClassifiers></_>
    <!-- stage 10 -->
    <_>
      <maxWeakCount>8</maxWeakCount>
      <stageThreshold>-9.0873712301254272e-01</stageThreshold>
      <weakClassifiers>
        <_>
          <internalNodes>
            0 -1 114 3.0113162938505411e-04</internalNodes>
          <leafValues>
            -7.1144276857376099e-01 2.6923078298568726e-01</leafValues></_>
        <_>
          <internalNodes>
            0 -1 86 -7.8880914952605963e-04</internalNodes>
          <leafValues>
            3.8778877258300781e-01 -4.6658816933631897e-01</leafValues></_>
        <_>
          <internalNodes>
            0 -1 18 -1.0879432782530785e-02</internalNodes>
          <leafValues>
            -8.8739103078842163e-01 2.6732629537582397e-01</leafValues></_>
        <_>
          <internalNodes>
            0 -1 0 -9.1959852725267410e-03</internalNodes>
          <leafValues>
            6.9493222236633301e-01 -3.1894430518150330e-01</leafValues></_>
        <_>
          <internalNodes>
            0 -1 89 1.8848051549866796e-03</internalNodes>
          <leafValues>
            -4.3180280923843384e-01 4.4124320149421692e-01</leafValues></_>
        <_>
          <internalNodes>
            0 -1 50 8.4046376869082451e-03</internalNodes>
          <leafValues>
            2.5637924671173096e-01 -9.0180808305740356e-01</leafValues></_>
        <_>
          <internalNodes>
            0 -1 58 -2.0582955330610275e-03</internalNodes>
          <leafValues>
            -8.4429222345352173e-01 2.7347862720489502e-01</leafValues></_>
        <_>
          <internalNodes>
            0 -1 130 -7.2554335929453373e-03</internalNodes>
          <leafValues>
            6.1373215913772583e-01 -3.4984880685806274e-01</leafValues></_></weakClassifiers></_>
    <!-- stage 11 -->
    <_>
      <maxWeakCount>9</maxWeakCount>
      <stageThreshold>-8.3728259801864624e-01</stageThreshold>
      <weakClassifiers>
        <_>
          <internalNodes>
            0 -1 96 1.4267493970692158e-03</internalNodes>
          <leafValues>
            -3.2812500000000000e-01 4.5623341202735901e-01</leafValues></_>
        <_>
          <internalNodes>
            0 -1 20 -1.8539572134613991e-02</internalNodes>
          <leafValues>
            -8.6276447772979736e-01 1.9246931374073029e-01</leafValues></_>
        <_>
          <internalNodes>
            0 -1 6 1.1704437434673309e-02</internalNodes>
          <leafValues>
            2.8123891353607178e-01 -6.5827983617782593e-01</leafValues></_>
        <_>
          <internalNodes>
            0 -1 75 1.0477532632648945e-03</internalNodes>
          <leafValues>
            -6.7335563898086548e-01 2.0269747078418732e-01</leafValues></_>
        <_>
          <internalNodes>
            0 -1 102 1.2503487057983875e-02</internalNodes>
          <leafValues>
            2.1606734395027161e-01 -7.9233074188232422e-01</leafValues></_>
        <_>
          <internalNodes>
            0 -1 33 -1.4122788794338703e-02</internalNodes>
          <leafValues>
            -8.6348640918731689e-01 1.7969617247581482e-01</leafValues></_>
        <_>
          <internalNodes>
            0 -1 67 -1.7007885035127401e-03</internalNodes>
          <leafValues>
            2.2687524557113647e-01 -6.3728398084640503e-01</leafValues></_>
        <_>
          <internalNodes>
            0 -1 124 7.0826360024511814e-04</internalNodes>
          <leafValues>
            -2.8935223817825317e-01 6.2580233812332153e-01</leafValues></_>
        <_>
          <internalNodes>
            0 -1 1 -2.9314737766981125e-03</internalNodes>
          <leafValues>
            4.3842715024948120e-01 -3.7150219082832336e-01</leafValues></_></weakClassifiers></_>
    <!-- stage 12 -->
    <_>
      <maxWeakCount>9</maxWeakCount>
      <stageThreshold>-8.5629832744598389e-01</stageThreshold>
      <weakClassifiers>
        <_>
          <internalNodes>
            0 -1 82 -5.3242761641740799e-03</internalNodes>
          <leafValues>
            -8.4057968854904175e-01 2.0524017512798309e-01</leafValues></_>
        <_>
          <internalNodes>
            0 -1 60 -3.9971852675080299e-04</internalNodes>
          <leafValues>
            2.2949238121509552e-01 -7.9954612255096436e-01</leafValues></_>
        <_>
          <internalNodes>
            0 -1 79 -4.7305813059210777e-03</internalNodes>
          <leafValues>
            5.2466565370559692e-01 -3.2535663247108459e-01</leafValues></_>
        <_>
          <internalNodes>
            0 -1 15 -7.6509723439812660e-03</internalNodes>
          <leafValues>
            -7.1600019931793213e-01 2.2802814841270447e-01</leafValues></_>
        <_>
          <internalNodes>
            0 -1 72 -9.2635788023471832e-03</internalNodes>
          <leafValues>
            -8.6674410104751587e-01 1.6766281425952911e-01</leafValues></_>
        <_>
          <internalNodes>
            0 -1 109 5.4417783394455910e-03</internalNodes>
          <leafValues>
            -2.3409846425056458e-01 7.8143131732940674e-01</leafValues></_>
        <_>
          <internalNodes>
            0 -1 29 -3.4106237580999732e-04</internalNodes>
          <leafValues>
            4.3058341741561890e-01 -4.0431526303291321e-01</leafValues></_>
        <_>
          <internalNodes>
            0 -1 97 -9.1176759451627731e-03</internalNodes>
          <leafValues>
            -7.1951580047607422e-01 2.1290662884712219e-01</leafValues></_>
        <_>
          <internalNodes>
            0 -1 66 -2.5905619841068983e-03</internalNodes>
          <leafValues>
            2.1909144520759583e-01 -6.8786305189132690e-01</leafValues></_></weakClassifiers></_>
    <!-- stage 13 -->
    <_>
      <maxWeakCount>8</maxWeakCount>
      <stageThreshold>-8.0501061677932739e-01</stageThreshold>
      <weakClassifiers>
        <_>
          <internalNodes>
            0 -1 53 -2.6265979613526724e-05</internalNodes>
          <leafValues>
            3.0508473515510559e-01 -6.5957444906234741e-01</leafValues></_>
        <_>
          <internalNodes>
            0 -1 8 2.2055830806493759e-02</internalNodes>
          <leafValues>
            1.7544592916965485e-01 -8.2046568393707275e-01</leafValues></_>
        <_>
          <internalNodes>
            0 -1 100 -1.4373497106134892e-03</internalNodes>
          <leafValues>
            5.3101903200149536e-01 -3.0609101057052612e-01</leafValues></_>
        <_>
          <internalNodes>
            0 -1 63 1.2334302300587296e-03</internalNodes>
          <leafValues>
            1.9570024311542511e-01 -8.5605615377426147e-01</leafValues></_>
        <_>
          <internalNodes>
            0 -1 130 1.2509544380009174e-02</internalNodes>
          <leafValues>
            -2.1967124938964844e-01 8.0633199214935303e-01</leafValues></_>
        <_>
          <internalNodes>
            0 -1 117 3.6870709154754877e-03</internalNodes>
          <leafValues>
            -2.4565210938453674e-01 6.7151319980621338e-01</leafValues></_>
        <_>
          <internalNodes>
            0 -1 129 7.3997345753014088e-03</internalNodes>
          <leafValues>
            -2.3375022411346436e-01 7.2381299734115601e-01</leafValues></_>
        <_>
          <internalNodes>
            0 -1 125 -9.7854156047105789e-04</internalNodes>
          <leafValues>
            5.1983469724655151e-01 -3.0432447791099548e-01</leafValues></_></weakClassifiers></_>
    <!-- stage 14 -->
    <_>
      <maxWeakCount>8</maxWeakCount>
      <stageThreshold>-6.9863820075988770e-01</stageThreshold>
      <weakClassifiers>
        <_>
          <internalNodes>
            0 -1 98 -2.7556580025702715e-03</internalNodes>
          <leafValues>
            5.0144928693771362e-01 -3.0833333730697632e-01</leafValues></_>
        <_>
          <internalNodes>
            0 -1 26 -4.1743017733097076e-02</internalNodes>
          <leafValues>
            7.2773092985153198e-01 -2.3846308887004852e-01</leafValues></_>
        <_>
          <internalNodes>
            0 -1 123 -5.7377177290618420e-04</internalNodes>
          <leafValues>
            2.0620816946029663e-01 -7.3637413978576660e-01</leafValues></_>
        <_>
          <internalNodes>
            0 -1 27 8.4005240350961685e-03</internalNodes>
          <leafValues>
            -3.5534060001373291e-01 4.5597541332244873e-01</leafValues></_>
        <_>
          <internalNodes>
            0 -1 106 1.1581739410758018e-02</internalNodes>
          <leafValues>
            2.8285166621208191e-01 -7.3619776964187622e-01</leafValues></_>
        <_>
          <internalNodes>
            0 -1 122 -1.0836647124961019e-03</internalNodes>
          <leafValues>
            4.8273357748985291e-01 -3.4387677907943726e-01</leafValues></_>
        <_>
          <internalNodes>
            0 -1 119 6.6332780988886952e-04</internalNodes>
          <leafValues>
            -2.6209560036659241e-01 5.5765062570571899e-01</leafValues></_>
        <_>
          <internalNodes>
            0 -1 88 -2.3586726747453213e-03</internalNodes>
          <leafValues>
            5.3886431455612183e-01 -2.8163781762123108e-01</leafValues></_></weakClassifiers></_>
    <!-- stage 15 -->
    <_>
      <maxWeakCount>11</maxWeakCount>
      <stageThreshold>-8.7335604429244995e-01</stageThreshold>
      <weakClassifiers>
        <_>
          <internalNodes>
            0 -1 112 1.7996318638324738e-02</internalNodes>
          <leafValues>
            2.5700935721397400e-01 -7.6502734422683716e-01</leafValues></_>
        <_>
          <internalNodes>
            0 -1 99 -3.3099888823926449e-03</internalNodes>
          <leafValues>
            -7.5274699926376343e-01 1.6061954200267792e-01</leafValues></_>
        <_>
          <internalNodes>
            0 -1 42 1.3779599219560623e-02</internalNodes>
          <leafValues>
            1.9263431429862976e-01 -7.4955451488494873e-01</leafValues></_>
        <_>
          <internalNodes>
            0 -1 81 1.7818047199398279e-03</internalNodes>
          <leafValues>
            -4.2320963740348816e-01 3.7175673246383667e-01</leafValues></_>
        <_>
          <internalNodes>
            0 -1 111 -1.0546908015385270e-03</internalNodes>
          <leafValues>
            5.1881176233291626e-01 -2.8645262122154236e-01</leafValues></_>
        <_>
          <internalNodes>
            0 -1 37 -3.8480485090985894e-04</internalNodes>
          <leafValues>
            -7.3672610521316528e-01 1.6814325749874115e-01</leafValues></_>
        <_>
          <internalNodes>
            0 -1 40 1.7511202022433281e-02</internalNodes>
          <leafValues>
            2.0820471644401550e-01 -6.4800912141799927e-01</leafValues></_>
        <_>
          <internalNodes>
            0 -1 105 2.8067152015864849e-03</internalNodes>
          <leafValues>
            -3.7438848614692688e-01 3.7898498773574829e-01</leafValues></_>
        <_>
          <internalNodes>
            0 -1 113 -1.7518294043838978e-03</internalNodes>
          <leafValues>
            5.1086932420730591e-01 -3.3156302571296692e-01</leafValues></_>
        <_>
          <internalNodes>
            0 -1 7 -9.5776431262493134e-03</internalNodes>
          <leafValues>
            -8.8087445497512817e-01 1.5451750159263611e-01</leafValues></_>
        <_>
          <internalNodes>
            0 -1 25 -3.5980083048343658e-02</internalNodes>
          <leafValues>
            6.6588038206100464e-01 -2.7204421162605286e-01</leafValues></_></weakClassifiers></_>
    <!-- stage 16 -->
    <_>
      <maxWeakCount>12</maxWeakCount>
      <stageThreshold>-1.2851985692977905e+00</stageThreshold>
      <weakClassifiers>
        <_>
          <internalNodes>
            0 -1 17 -3.1779735581949353e-04</internalNodes>
          <leafValues>
            -7.4925374984741211e-01 2.2889733314514160e-01</leafValues></_>
        <_>
          <internalNodes>
            0 -1 75 1.6484148800373077e-03</internalNodes>
          <leafValues>
            -5.6221556663513184e-01 2.3878794908523560e-01</leafValues></_>
        <_>
          <internalNodes>
            0 -1 14 2.6175765320658684e-02</internalNodes>
          <leafValues>
            2.0839728415012360e-01 -8.6315119266510010e-01</leafValues></_>
        <_>
          <internalNodes>
            0 -1 10 4.4949620496481657e-04</internalNodes>
          <leafValues>
            -6.9691538810729980e-01 1.5968385338783264e-01</leafValues></_>
        <_>
          <internalNodes>
            0 -1 52 -1.0030763223767281e-03</internalNodes>
          <leafValues>
            3.0444687604904175e-01 -5.1736998558044434e-01</leafValues></_>
        <_>
          <internalNodes>
            0 -1 116 -8.4280949085950851e-03</internalNodes>
          <leafValues>
            -8.0606341361999512e-01 1.7308802902698517e-01</leafValues></_>
        <_>
          <internalNodes>
            0 -1 68 3.0521564185619354e-02</internalNodes>
          <leafValues>
            -2.1127322316169739e-01 7.6294481754302979e-01</leafValues></_>
        <_>
          <internalNodes>
            0 -1 120 -4.9163144081830978e-02</internalNodes>
          <leafValues>
            5.8560270071029663e-01 -3.1845590472221375e-01</leafValues></_>
        <_>
          <internalNodes>
            0 -1 30 3.3431977499276400e-03</internalNodes>
          <leafValues>
            -1.7638607323169708e-01 6.4447593688964844e-01</leafValues></_>
        <_>
          <internalNodes>
            0 -1 118 2.8231230098754168e-03</internalNodes>
          <leafValues>
            -2.8090775012969971e-01 5.3039300441741943e-01</leafValues></_>
        <_>
          <internalNodes>
            0 -1 51 -7.6092993840575218e-03</internalNodes>
          <leafValues>
            -7.7214491367340088e-01 1.8812540173530579e-01</leafValues></_>
        <_>
          <internalNodes>
            0 -1 108 -7.5462642125785351e-03</internalNodes>
          <leafValues>
            8.7556034326553345e-01 -2.2424130141735077e-01</leafValues></_></weakClassifiers></_>
    <!-- stage 17 -->
    <_>
      <maxWeakCount>11</maxWeakCount>
      <stageThreshold>-7.8570526838302612e-01</stageThreshold>
      <weakClassifiers>
        <_>
          <internalNodes>
            0 -1 69 -1.6598839312791824e-02</internalNodes>
          <leafValues>
            7.7158772945404053e-01 -1.7583268880844116e-01</leafValues></_>
        <_>
          <internalNodes>
            0 -1 57 -4.3348455801606178e-03</internalNodes>
          <leafValues>
            -8.5901314020156860e-01 2.2247771918773651e-01</leafValues></_>
        <_>
          <internalNodes>
            0 -1 127 -3.0711468309164047e-02</internalNodes>
          <leafValues>
            5.6280547380447388e-01 -2.5484436750411987e-01</leafValues></_>
        <_>
          <internalNodes>
            0 -1 132 2.3100478574633598e-03</internalNodes>
          <leafValues>
            -2.3013977706432343e-01 6.1757111549377441e-01</leafValues></_>
        <_>
          <internalNodes>
            0 -1 65 -4.4108489528298378e-03</internalNodes>
          <leafValues>
            -7.7265787124633789e-01 2.0130826532840729e-01</leafValues></_>
        <_>
          <internalNodes>
            0 -1 104 -1.9614724442362785e-03</internalNodes>
          <leafValues>
            3.6210042238235474e-01 -4.0912592411041260e-01</leafValues></_>
        <_>
          <internalNodes>
            0 -1 23 -2.7546572964638472e-03</internalNodes>
          <leafValues>
            3.2354027032852173e-01 -5.0402444601058960e-01</leafValues></_>
        <_>
          <internalNodes>
            0 -1 28 1.7485234886407852e-02</internalNodes>
          <leafValues>
            1.7466752231121063e-01 -6.9670033454895020e-01</leafValues></_>
        <_>
          <internalNodes>
            0 -1 107 1.1618581600487232e-02</internalNodes>
          <leafValues>
            1.5313369035720825e-01 -8.9098471403121948e-01</leafValues></_>
        <_>
          <internalNodes>
            0 -1 103 -2.1347836591303349e-03</internalNodes>
          <leafValues>
            6.4638090133666992e-01 -2.5390884280204773e-01</leafValues></_>
        <_>
          <internalNodes>
            0 -1 115 3.6316406913101673e-03</internalNodes>
          <leafValues>
            -2.4990279972553253e-01 5.4450970888137817e-01</leafValues></_></weakClassifiers></_>
    <!-- stage 18 -->
    <_>
      <maxWeakCount>11</maxWeakCount>
      <stageThreshold>-7.7922624349594116e-01</stageThreshold>
      <weakClassifiers>
        <_>
          <internalNodes>
            0 -1 64 -2.9968266608193517e-04</internalNodes>
          <leafValues>
            3.1238093972206116e-01 -4.6333333849906921e-01</leafValues></_>
        <_>
          <internalNodes>
            0 -1 41 -5.3468784317374229e-03</internalNodes>
          <leafValues>
            -7.5004518032073975e-01 1.8179684877395630e-01</leafValues></_>
        <_>
          <internalNodes>
            0 -1 36 -1.4076434075832367e-02</internalNodes>
          <leafValues>
            -8.6138242483139038e-01 1.5747766196727753e-01</leafValues></_>
        <_>
          <internalNodes>
            0 -1 85 -2.4759462103247643e-03</internalNodes>
          <leafValues>
            5.5634188652038574e-01 -3.1862735748291016e-01</leafValues></_>
        <_>
          <internalNodes>
            0 -1 49 -9.5046162605285645e-03</internalNodes>
          <leafValues>
            -6.7254197597503662e-01 2.3563449084758759e-01</leafValues></_>
        <_>
          <internalNodes>
            0 -1 46 3.5621256101876497e-03</internalNodes>
          <leafValues>
            -2.7480861544609070e-01 5.4523366689682007e-01</leafValues></_>
        <_>
          <internalNodes>
            0 -1 95 6.6504152491688728e-03</internalNodes>
          <leafValues>
            2.5852489471435547e-01 -5.9377264976501465e-01</leafValues></_>
        <_>
          <internalNodes>
            0 -1 45 3.8211490027606487e-03</internalNodes>
          <leafValues>
            -2.5756737589836121e-01 5.7893663644790649e-01</leafValues></_>
        <_>
          <internalNodes>
            0 -1 128 2.9860610142350197e-02</internalNodes>
          <leafValues>
            -1.8115238845348358e-01 7.9039853811264038e-01</leafValues></_>
        <_>
          <internalNodes>
            0 -1 4 1.6197428107261658e-02</internalNodes>
          <leafValues>
            -2.3352894186973572e-01 7.4088269472122192e-01</leafValues></_>
        <_>
          <internalNodes>
            0 -1 64 5.8019859716296196e-03</internalNodes>
          <leafValues>
            2.8194862604141235e-01 -7.0368438959121704e-01</leafValues></_></weakClassifiers></_></stages>
  <features>
    <_>
      <rects>
        <_>
          0 2 2 12 -1.</_>
        <_>
          0 2 1 6 2.</_>
        <_>
          1 8 1 6 2.</_></rects>
      <tilted>0</tilted></_>
    <_>
      <rects>
        <_>
          0 8 3 3 -1.</_>
        <_>
          1 8 1 3 3.</_></rects>
      <tilted>0</tilted></_>
    <_>
      <rects>
        <_>
          0 9 3 2 -1.</_>
        <_>
          1 9 1 2 3.</_></rects>
      <tilted>0</tilted></_>
    <_>
      <rects>
        <_>
          0 10 2 1 -1.</_>
        <_>
          1 10 1 1 2.</_></rects>
      <tilted>0</tilted></_>
    <_>
      <rects>
        <_>
          0 10 4 4 -1.</_>
        <_>
          2 10 2 4 2.</_></rects>
      <tilted>0</tilted></_>
    <_>
      <rects>
        <_>
          1 7 2 5 -1.</_>
        <_>
          2 7 1 5 2.</_></rects>
      <tilted>0</tilted></_>
    <_>
      <rects>
        <_>
          1 8 18 2 -1.</_>
        <_>
          7 8 6 2 3.</_></rects>
      <tilted>0</tilted></_>
    <_>
      <rects>
        <_>
          1 9 18 2 -1.</_>
        <_>
          10 9 9 2 2.</_></rects>
      <tilted>0</tilted></_>
    <_>
      <rects>
        <_>
          2 6 7 8 -1.</_>
        <_>
          2 10 7 4 2.</_></rects>
      <tilted>0</tilted></_>
    <_>
      <rects>
        <_>
          2 7 3 6 -1.</_>
        <_>
          3 7 1 6 3.</_></rects>
      <tilted>0</tilted></_>
    <_>
      <rects>
        <_>
          2 7 10 1 -1.</_>
        <_>
          7 7 5 1 2.</_></rects>
      <tilted>0</tilted></_>
    <_>
      <rects>
        <_>
          2 7 15 1 -1.</_>
        <_>
          7 7 5 1 3.</_></rects>
      <tilted>0</tilted></_>
    <_>
      <rects>
        <_>
          2 7 16 5 -1.</_>
        <_>
          10 7 8 5 2.</_></rects>
      <tilted>0</tilted></_>
    <_>
      <rects>
        <_>
          2 8 4 4 -1.</_>
        <_>
          4 8 2 4 2.</_></rects>
      <tilted>0</tilted></_>
    <_>
      <rects>
        <_>
          2 8 10 5 -1.</_>
        <_>
          7 8 5 5 2.</_></rects>
      <tilted>0</tilted></_>
    <_>
      <rects>
        <_>
          2 8 16 4 -1.</_>
        <_>
          2 10 16 2 2.</_></rects>
      <tilted>0</tilted></_>
    <_>
      <rects>
        <_>
          2 10 15 3 -1.</_>
        <_>
          7 10 5 3 3.</_></rects>
      <tilted>0</tilted></_>
    <_>
      <rects>
        <_>
          3 7 4 5 -1.</_>
        <_>
          5 7 2 5 2.</_></rects>
      <tilted>0</tilted></_>
    <_>
      <rects>
        <_>
          3 7 12 3 -1.</_>
        <_>
          9 7 6 3 2.</_></rects>
      <tilted>0</tilted></_>
    <_>
      <rects>
        <_>
          3 8 6 5 -1.</_>
        <_>
          6 8 3 5 2.</_></rects>
      <tilted>0</tilted></_>
    <_>
      <rects>
        <_>
          3 8 12 3 -1.</_>
        <_>
          7 8 4 3 3.</_></rects>
      <tilted>0</tilted></_>
    <_>
      <rects>
        <_>
          3 9 12 3 -1.</_>
        <_>
          9 9 6 3 2.</_></rects>
      <tilted>0</tilted></_>
    <_>
      <rects>
        <_>
          3 9 9 4 -1.</_>
        <_>
          3 11 9 2 2.</_></rects>
      <tilted>0</tilted></_>
    <_>
      <rects>
        <_>
          3 9 14 4 -1.</_>
        <_>
          3 11 14 2 2.</_></rects>
      <tilted>0</tilted></_>
    <_>
      <rects>
        <_>
          3 10 16 2 -1.</_>
        <_>
          11 10 8 2 2.</_></rects>
      <tilted>0</tilted></_>
    <_>
      <rects>
        <_>
          3 13 9 4 -1.</_>
        <_>
          3 15 9 2 2.</_></rects>
      <tilted>0</tilted></_>
    <_>
      <rects>
        <_>
          4 1 6 6 -1.</_>
        <_>
          4 4 6 3 2.</_></rects>
      <tilted>0</tilted></_>
    <_>
      <rects>
        <_>
          4 3 4 4 -1.</_>
        <_>
          4 5 4 2 2.</_></rects>
      <tilted>0</tilted></_>
    <_>
      <rects>
        <_>
          4 7 12 6 -1.</_>
        <_>
          10 7 6 6 2.</_></rects>
      <tilted>0</tilted></_>
    <_>
      <rects>
        <_>
          4 9 3 6 -1.</_>
        <_>
          4 11 3 2 3.</_></rects>
      <tilted>0</tilted></_>
    <_>
      <rects>
        <_>
          4 10 3 3 -1.</_>
        <_>
          4 11 3 1 3.</_></rects>
      <tilted>0</tilted></_>
    <_>
      <rects>
        <_>
          4 15 11 4 -1.</_>
        <_>
          4 17 11 2 2.</_></rects>
      <tilted>0</tilted></_>
    <_>
      <rects>
        <_>
          5 7 14 6 -1.</_>
        <_>
          12 7 7 6 2.</_></rects>
      <tilted>0</tilted></_>
    <_>
      <rects>
        <_>
          5 7 9 6 -1.</_>
        <_>
          5 10 9 3 2.</_></rects>
      <tilted>0</tilted></_>
    <_>
      <rects>
        <_>
          5 8 12 5 -1.</_>
        <_>
          11 8 6 5 2.</_></rects>
      <tilted>0</tilted></_>
    <_>
      <rects>
        <_>
          5 9 12 3 -1.</_>
        <_>
          11 9 6 3 2.</_></rects>
      <tilted>0</tilted></_>
    <_>
      <rects>
        <_>
          5 10 9 4 -1.</_>
        <_>
          8 10 3 4 3.</_></rects>
      <tilted>0</tilted></_>
    <_>
      <rects>
        <_>
          6 5 3 9 -1.</_>
        <_>
          6 8 3 3 3.</_></rects>
      <tilted>0</tilted></_>
    <_>
      <rects>
        <_>
          6 5 9 10 -1.</_>
        <_>
          9 5 3 10 3.</_></rects>
      <tilted>0</tilted></_>
    <_>
      <rects>
        <_>
          6 5 9 9 -1.</_>
        <_>
          6 8 9 3 3.</_></rects>
      <tilted>0</tilted></_>
    <_>
      <rects>
        <_>
          6 6 5 9 -1.</_>
        <_>
          6 9 5 3 3.</_></rects>
      <tilted>0</tilted></_>
    <_>
      <rects>
        <_>
          6 6 10 6 -1.</_>
        <_>
          6 6 5 3 2.</_>
        <_>
          11 9 5 3 2.</_></rects>
      <tilted>0</tilted></_>
    <_>
      <rects>
        <_>
          6 6 9 6 -1.</_>
        <_>
          6 9 9 3 2.</_></rects>
      <tilted>0</tilted></_>
    <_>
      <rects>
        <_>
          6 6 9 9 -1.</_>
        <_>
          6 9 9 3 3.</_></rects>
      <tilted>0</tilted></_>
    <_>
      <rects>
        <_>
          6 10 4 1 -1.</_>
        <_>
          8 10 2 1 2.</_></rects>
      <tilted>0</tilted></_>
    <_>
      <rects>
        <_>
          6 10 2 3 -1.</_>
        <_>
          6 11 2 1 3.</_></rects>
      <tilted>0</tilted></_>
    <_>
      <rects>
        <_>
          6 11 3 3 -1.</_>
        <_>
          6 12 3 1 3.</_></rects>
      <tilted>0</tilted></_>
    <_>
      <rects>
        <_>
          6 13 4 2 -1.</_>
        <_>
          6 13 2 1 2.</_>
        <_>
          8 14 2 1 2.</_></rects>
      <tilted>0</tilted></_>
    <_>
      <rects>
        <_>
          7 0 4 8 -1.</_>
        <_>
          7 4 4 4 2.</_></rects>
      <tilted>0</tilted></_>
    <_>
      <rects>
        <_>
          7 5 8 9 -1.</_>
        <_>
          11 5 4 9 2.</_></rects>
      <tilted>0</tilted></_>
    <_>
      <rects>
        <_>
          7 6 4 6 -1.</_>
        <_>
          7 9 4 3 2.</_></rects>
      <tilted>0</tilted></_>
    <_>
      <rects>
        <_>
          7 7 4 6 -1.</_>
        <_>
          7 10 4 3 2.</_></rects>
      <tilted>0</tilted></_>
    <_>
      <rects>
        <_>
          7 8 4 3 -1.</_>
        <_>
          9 8 2 3 2.</_></rects>
      <tilted>0</tilted></_>
    <_>
      <rects>
        <_>
          7 8 6 5 -1.</_>
        <_>
          9 8 2 5 3.</_></rects>
      <tilted>0</tilted></_>
    <_>
      <rects>
        <_>
          7 9 4 3 -1.</_>
        <_>
          9 9 2 3 2.</_></rects>
      <tilted>0</tilted></_>
    <_>
      <rects>
        <_>
          7 10 2 1 -1.</_>
        <_>
          8 10 1 1 2.</_></rects>
      <tilted>0</tilted></_>
    <_>
      <rects>
        <_>
          8 4 3 3 -1.</_>
        <_>
          8 5 3 1 3.</_></rects>
      <tilted>0</tilted></_>
    <_>
      <rects>
        <_>
          8 4 4 9 -1.</_>
        <_>
          8 7 4 3 3.</_></rects>
      <tilted>0</tilted></_>
    <_>
      <rects>
        <_>
          8 5 2 8 -1.</_>
        <_>
          8 9 2 4 2.</_></rects>
      <tilted>0</tilted></_>
    <_>
      <rects>
        <_>
          8 5 4 10 -1.</_>
        <_>
          8 10 4 5 2.</_></rects>
      <tilted>0</tilted></_>
    <_>
      <rects>
        <_>
          8 7 4 8 -1.</_>
        <_>
          8 11 4 4 2.</_></rects>
      <tilted>0</tilted></_>
    <_>
      <rects>
        <_>
          8 8 10 5 -1.</_>
        <_>
          13 8 5 5 2.</_></rects>
      <tilted>0</tilted></_>
    <_>
      <rects>
        <_>
          8 9 2 3 -1.</_>
        <_>
          8 10 2 1 3.</_></rects>
      <tilted>0</tilted></_>
    <_>
      <rects>
        <_>
          8 10 2 6 -1.</_>
        <_>
          8 13 2 3 2.</_></rects>
      <tilted>0</tilted></_>
    <_>
      <rects>
        <_>
          8 10 6 5 -1.</_>
        <_>
          10 10 2 5 3.</_></rects>
      <tilted>0</tilted></_>
    <_>
      <rects>
        <_>
          8 12 4 3 -1.</_>
        <_>
          10 12 2 3 2.</_></rects>
      <tilted>0</tilted></_>
    <_>
      <rects>
        <_>
          8 12 4 4 -1.</_>
        <_>
          8 14 4 2 2.</_></rects>
      <tilted>0</tilted></_>
    <_>
      <rects>
        <_>
          8 13 3 2 -1.</_>
        <_>
          8 14 3 1 2.</_></rects>
      <tilted>0</tilted></_>
    <_>
      <rects>
        <_>
          8 14 5 4 -1.</_>
        <_>
          8 16 5 2 2.</_></rects>
      <tilted>0</tilted></_>
    <_>
      <rects>
        <_>
          9 2 2 4 -1.</_>
        <_>
          9 4 2 2 2.</_></rects>
      <tilted>0</tilted></_>
    <_>
      <rects>
        <_>
          9 4 3 9 -1.</_>
        <_>
          9 7 3 3 3.</_></rects>
      <tilted>0</tilted></_>
    <_>
      <rects>
        <_>
          9 5 3 10 -1.</_>
        <_>
          9 10 3 5 2.</_></rects>
      <tilted>0</tilted></_>
    <_>
      <rects>
        <_>
          9 5 5 9 -1.</_>
        <_>
          9 8 5 3 3.</_></rects>
      <tilted>0</tilted></_>
    <_>
      <rects>
        <_>
          9 6 2 3 -1.</_>
        <_>
          9 7 2 1 3.</_></rects>
      <tilted>0</tilted></_>
    <_>
      <rects>
        <_>
          9 6 2 9 -1.</_>
        <_>
          9 9 2 3 3.</_></rects>
      <tilted>0</tilted></_>
    <_>
      <rects>
        <_>
          9 6 3 2 -1.</_>
        <_>
          9 7 3 1 2.</_></rects>
      <tilted>0</tilted></_>
    <_>
      <rects>
        <_>
          9 6 3 3 -1.</_>
        <_>
          9 7 3 1 3.</_></rects>
      <tilted>0</tilted></_>
    <_>
      <rects>
        <_>
          9 6 3 6 -1.</_>
        <_>
          9 9 3 3 2.</_></rects>
      <tilted>0</tilted></_>
    <_>
      <rects>
        <_>
          9 7 3 2 -1.</_>
        <_>
          9 8 3 1 2.</_></rects>
      <tilted>0</tilted></_>
    <_>
      <rects>
        <_>
          9 7 3 3 -1.</_>
        <_>
          9 8 3 1 3.</_></rects>
      <tilted>0</tilted></_>
    <_>
      <rects>
        <_>
          9 8 2 6 -1.</_>
        <_>
          9 11 2 3 2.</_></rects>
      <tilted>0</tilted></_>
    <_>
      <rects>
        <_>
          9 9 2 3 -1.</_>
        <_>
          9 10 2 1 3.</_></rects>
      <tilted>0</tilted></_>
    <_>
      <rects>
        <_>
          9 9 2 6 -1.</_>
        <_>
          9 12 2 3 2.</_></rects>
      <tilted>0</tilted></_>
    <_>
      <rects>
        <_>
          9 9 3 3 -1.</_>
        <_>
          9 10 3 1 3.</_></rects>
      <tilted>0</tilted></_>
    <_>
      <rects>
        <_>
          9 10 2 1 -1.</_>
        <_>
          10 10 1 1 2.</_></rects>
      <tilted>0</tilted></_>
    <_>
      <rects>
        <_>
          9 10 3 1 -1.</_>
        <_>
          10 10 1 1 3.</_></rects>
      <tilted>0</tilted></_>
    <_>
      <rects>
        <_>
          9 10 2 2 -1.</_>
        <_>
          9 11 2 1 2.</_></rects>
      <tilted>0</tilted></_>
    <_>
      <rects>
        <_>
          9 10 2 3 -1.</_>
        <_>
          9 11 2 1 3.</_></rects>
      <tilted>0</tilted></_>
    <_>
      <rects>
        <_>
          9 11 3 3 -1.</_>
        <_>
          9 12 3 1 3.</_></rects>
      <tilted>0</tilted></_>
    <_>
      <rects>
        <_>
          9 12 1 3 -1.</_>
        <_>
          9 13 1 1 3.</_></rects>
      <tilted>0</tilted></_>
    <_>
      <rects>
        <_>
          9 12 2 3 -1.</_>
        <_>
          9 13 2 1 3.</_></rects>
      <tilted>0</tilted></_>
    <_>
      <rects>
        <_>
          9 12 3 3 -1.</_>
        <_>
          9 13 3 1 3.</_></rects>
      <tilted>0</tilted></_>
    <_>
      <rects>
        <_>
          9 13 2 2 -1.</_>
        <_>
          9 14 2 1 2.</_></rects>
      <tilted>0</tilted></_>
    <_>
      <rects>
        <_>
          9 13 3 2 -1.</_>
        <_>
          9 14 3 1 2.</_></rects>
      <tilted>0</tilted></_>
    <_>
      <rects>
        <_>
          10 6 4 2 -1.</_>
        <_>
          10 6 2 1 2.</_>
        <_>
          12 7 2 1 2.</_></rects>
      <tilted>0</tilted></_>
    <_>
      <rects>
        <_>
          10 6 4 8 -1.</_>
        <_>
          12 6 2 8 2.</_></rects>
      <tilted>0</tilted></_>
    <_>
      <rects>
        <_>
          10 9 3 2 -1.</_>
        <_>
          11 9 1 2 3.</_></rects>
      <tilted>0</tilted></_>
    <_>
      <rects>
        <_>
          10 9 4 6 -1.</_>
        <_>
          10 12 4 3 2.</_></rects>
      <tilted>0</tilted></_>
    <_>
      <rects>
        <_>
          11 5 3 8 -1.</_>
        <_>
          12 5 1 8 3.</_></rects>
      <tilted>0</tilted></_>
    <_>
      <rects>
        <_>
          11 6 5 6 -1.</_>
        <_>
          11 9 5 3 2.</_></rects>
      <tilted>0</tilted></_>
    <_>
      <rects>
        <_>
          11 7 1 3 -1.</_>
        <_>
          11 8 1 1 3.</_></rects>
      <tilted>0</tilted></_>
    <_>
      <rects>
        <_>
          11 7 4 6 -1.</_>
        <_>
          11 10 4 3 2.</_></rects>
      <tilted>0</tilted></_>
    <_>
      <rects>
        <_>
          11 7 5 6 -1.</_>
        <_>
          11 10 5 3 2.</_></rects>
      <tilted>0</tilted></_>
    <_>
      <rects>
        <_>
          11 8 3 2 -1.</_>
        <_>
          11 9 3 1 2.</_></rects>
      <tilted>0</tilted></_>
    <_>
      <rects>
        <_>
          11 9 3 4 -1.</_>
        <_>
          12 9 1 4 3.</_></rects>
      <tilted>0</tilted></_>
    <_>
      <rects>
        <_>
          11 9 2 3 -1.</_>
        <_>
          11 10 2 1 3.</_></rects>
      <tilted>0</tilted></_>
    <_>
      <rects>
        <_>
          11 9 6 3 -1.</_>
        <_>
          13 9 2 3 3.</_></rects>
      <tilted>0</tilted></_>
    <_>
      <rects>
        <_>
          11 9 8 4 -1.</_>
        <_>
          15 9 4 4 2.</_></rects>
      <tilted>0</tilted></_>
    <_>
      <rects>
        <_>
          11 10 3 2 -1.</_>
        <_>
          11 11 3 1 2.</_></rects>
      <tilted>0</tilted></_>
    <_>
      <rects>
        <_>
          11 10 3 3 -1.</_>
        <_>
          11 11 3 1 3.</_></rects>
      <tilted>0</tilted></_>
    <_>
      <rects>
        <_>
          11 13 4 3 -1.</_>
        <_>
          11 14 4 1 3.</_></rects>
      <tilted>0</tilted></_>
    <_>
      <rects>
        <_>
          12 3 1 3 -1.</_>
        <_>
          12 4 1 1 3.</_></rects>
      <tilted>0</tilted></_>
    <_>
      <rects>
        <_>
          12 5 3 9 -1.</_>
        <_>
          12 8 3 3 3.</_></rects>
      <tilted>0</tilted></_>
    <_>
      <rects>
        <_>
          12 6 5 3 -1.</_>
        <_>
          12 7 5 1 3.</_></rects>
      <tilted>0</tilted></_>
    <_>
      <rects>
        <_>
          12 8 6 4 -1.</_>
        <_>
          14 8 2 4 3.</_></rects>
      <tilted>0</tilted></_>
    <_>
      <rects>
        <_>
          13 8 2 3 -1.</_>
        <_>
          13 9 2 1 3.</_></rects>
      <tilted>0</tilted></_>
    <_>
      <rects>
        <_>
          13 8 4 6 -1.</_>
        <_>
          15 8 2 6 2.</_></rects>
      <tilted>0</tilted></_>
    <_>
      <rects>
        <_>
          13 8 3 3 -1.</_>
        <_>
          13 9 3 1 3.</_></rects>
      <tilted>0</tilted></_>
    <_>
      <rects>
        <_>
          13 10 2 3 -1.</_>
        <_>
          13 11 2 1 3.</_></rects>
      <tilted>0</tilted></_>
    <_>
      <rects>
        <_>
          13 13 2 2 -1.</_>
        <_>
          13 13 1 1 2.</_>
        <_>
          14 14 1 1 2.</_></rects>
      <tilted>0</tilted></_>
    <_>
      <rects>
        <_>
          14 6 6 9 -1.</_>
        <_>
          17 6 3 9 2.</_></rects>
      <tilted>0</tilted></_>
    <_>
      <rects>
        <_>
          14 7 4 6 -1.</_>
        <_>
          16 7 2 6 2.</_></rects>
      <tilted>0</tilted></_>
    <_>
      <rects>
        <_>
          14 8 3 4 -1.</_>
        <_>
          15 8 1 4 3.</_></rects>
      <tilted>0</tilted></_>
    <_>
      <rects>
        <_>
          14 8 4 4 -1.</_>
        <_>
          16 8 2 4 2.</_></rects>
      <tilted>0</tilted></_>
    <_>
      <rects>
        <_>
          14 9 2 2 -1.</_>
        <_>
          14 9 1 1 2.</_>
        <_>
          15 10 1 1 2.</_></rects>
      <tilted>0</tilted></_>
    <_>
      <rects>
        <_>
          14 11 1 2 -1.</_>
        <_>
          14 12 1 1 2.</_></rects>
      <tilted>0</tilted></_>
    <_>
      <rects>
        <_>
          15 9 4 3 -1.</_>
        <_>
          17 9 2 3 2.</_></rects>
      <tilted>0</tilted></_>
    <_>
      <rects>
        <_>
          16 7 4 7 -1.</_>
        <_>
          18 7 2 7 2.</_></rects>
      <tilted>0</tilted></_>
    <_>
      <rects>
        <_>
          16 8 4 10 -1.</_>
        <_>
          18 8 2 10 2.</_></rects>
      <tilted>0</tilted></_>
    <_>
      <rects>
        <_>
          17 6 3 4 -1.</_>
        <_>
          18 6 1 4 3.</_></rects>
      <tilted>0</tilted></_>
    <_>
      <rects>
        <_>
          18 6 2 8 -1.</_>
        <_>
          19 6 1 8 2.</_></rects>
      <tilted>0</tilted></_>
    <_>
      <rects>
        <_>
          18 9 2 3 -1.</_>
        <_>
          19 9 1 3 2.</_></rects>
      <tilted>0</tilted></_>
    <_>
      <rects>
        <_>
          18 10 2 2 -1.</_>
        <_>
          19 10 1 2 2.</_></rects>
      <tilted>0</tilted></_></features></cascade>
</opencv_storage>
